{
    "type": "NeuralNetwork",
    "sizes": [
        16,
        8,
        4
    ],
    "layers": [
        {
            "weights": [],
            "biases": []
        },
        {
            "weights": [
                [
                    0.6665739417076111,
                    0.6145328879356384,
                    0.5212273597717285,
                    0.3336739242076874,
                    0.5900280475616455,
                    0.7778052687644958,
                    0.10633940994739532,
                    -0.12739574909210205,
                    -0.3984784185886383,
                    -0.6449804902076721,
                    -0.3395005762577057,
                    -0.7622194886207581,
                    -0.7018578052520752,
                    -0.7855429649353027,
                    0.12204262614250183,
                    -0.4760938286781311
                ],
                [
                    -0.6099953651428223,
                    -0.9315060973167419,
                    0.023966917768120766,
                    -0.11022043228149414,
                    0.7206293940544128,
                    0.2764400839805603,
                    0.5416449308395386,
                    0.5191038846969604,
                    1.4005630016326904,
                    1.3154752254486084,
                    0.23599494993686676,
                    0.17217497527599335,
                    -1.135096549987793,
                    -1.2371528148651123,
                    -0.4512055516242981,
                    -0.9394946098327637
                ],
                [
                    0.42532604932785034,
                    -0.05658706650137901,
                    0.07220406830310822,
                    -0.22810064256191254,
                    0.33773157000541687,
                    0.043252673000097275,
                    0.1666286587715149,
                    -0.26162028312683105,
                    0.5910508036613464,
                    -0.23336251080036163,
                    -0.031140461564064026,
                    -0.6242011785507202,
                    -0.28697270154953003,
                    -0.9376961588859558,
                    0.09292316436767578,
                    -0.4048970639705658
                ],
                [
                    0.8446264266967773,
                    0.8924193978309631,
                    0.8437866568565369,
                    0.5155317187309265,
                    1.1936978101730347,
                    1.0300793647766113,
                    -0.25717291235923767,
                    -0.31541311740875244,
                    -1.1621575355529785,
                    -1.1920619010925293,
                    -0.36174440383911133,
                    -1.009310245513916,
                    -0.8329470157623291,
                    -0.5653701424598694,
                    0.08054254204034805,
                    -0.19396956264972687
                ],
                [
                    -0.4340391457080841,
                    -0.40974581241607666,
                    -0.41775745153427124,
                    -0.6819743514060974,
                    -0.745686948299408,
                    -1.0256938934326172,
                    0.004692570306360722,
                    -0.3200209140777588,
                    1.0203880071640015,
                    0.9587274193763733,
                    0.3399447798728943,
                    0.6903053522109985,
                    0.24212472140789032,
                    0.2321113795042038,
                    0.08779067546129227,
                    -0.17292457818984985
                ],
                [
                    -1.317543387413025,
                    -1.5156954526901245,
                    -0.7560766339302063,
                    -0.6553714871406555,
                    1.2258543968200684,
                    1.0058248043060303,
                    0.22367796301841736,
                    0.48272842168807983,
                    -0.39133313298225403,
                    -0.4603542983531952,
                    0.2802867889404297,
                    -0.27992990612983704,
                    0.6734875440597534,
                    0.4189477264881134,
                    -1.032408356666565,
                    -0.4874224364757538
                ],
                [
                    1.2305656671524048,
                    1.0758330821990967,
                    0.46181851625442505,
                    0.021743545308709145,
                    -0.46759283542633057,
                    -0.8061138987541199,
                    -0.46039900183677673,
                    -0.7636496424674988,
                    -0.48688411712646484,
                    -0.952558696269989,
                    -0.37020421028137207,
                    -0.3435360789299011,
                    0.7478421926498413,
                    0.2532310485839844,
                    0.7632972002029419,
                    0.5431637167930603
                ],
                [
                    0.2863745093345642,
                    0.14111225306987762,
                    -0.6745341420173645,
                    -1.0310455560684204,
                    -0.7445494532585144,
                    -1.3588013648986816,
                    -0.4894847273826599,
                    -1.2261637449264526,
                    -0.3239910900592804,
                    -0.8648630976676941,
                    0.7525107860565186,
                    0.4485204219818115,
                    1.1625407934188843,
                    1.033742904663086,
                    0.791689932346344,
                    0.5471610426902771
                ]
            ],
            "biases": [
                -0.08486547321081161,
                0.20021982491016388,
                0.15067358314990997,
                -0.050565801560878754,
                -0.07687125355005264,
                0.24149438738822937,
                -0.21413947641849518,
                0.20242391526699066
            ]
        },
        {
            "weights": [
                [
                    0.7998865246772766,
                    -1.8795783519744873,
                    -0.36200425028800964,
                    1.4084947109222412,
                    -1.0467499494552612,
                    -3.3045480251312256,
                    1.8799169063568115,
                    -0.11439263820648193
                ],
                [
                    0.7334040999412537,
                    0.49728521704673767,
                    -0.44325074553489685,
                    1.3899717330932617,
                    -1.8433301448822021,
                    1.6560262441635132,
                    -1.5935959815979004,
                    -3.0047190189361572
                ],
                [
                    -1.12393057346344,
                    2.02858567237854,
                    -0.5291944146156311,
                    -2.453914165496826,
                    1.5844722986221313,
                    -0.691007673740387,
                    -1.6514034271240234,
                    -0.9444746971130371
                ],
                [
                    -1.538211464881897,
                    -2.4154553413391113,
                    -1.503299355506897,
                    -1.4264333248138428,
                    0.39801958203315735,
                    0.6517475247383118,
                    0.5076104998588562,
                    2.3898019790649414
                ]
            ],
            "biases": [
                -0.5859267115592957,
                -0.8523110151290894,
                -0.22212724387645721,
                -0.5472638010978699
            ]
        }
    ],
    "inputLookup": null,
    "inputLookupLength": 0,
    "outputLookup": null,
    "outputLookupLength": 0,
    "options": {
        "inputSize": 0,
        "outputSize": 0,
        "binaryThresh": 0.5
    },
    "trainOpts": {
        "activation": "sigmoid",
        "iterations": 20000,
        "errorThresh": 0.005,
        "log": true,
        "logPeriod": 10,
        "leakyReluAlpha": 0.01,
        "learningRate": 0.3,
        "momentum": 0.1,
        "callbackPeriod": 10,
        "timeout": "Infinity",
        "beta1": 0.9,
        "beta2": 0.999,
        "epsilon": 1e-8
    }
}