{
    "type": "NeuralNetwork",
    "sizes": [
        8,
        4,
        4
    ],
    "layers": [
        {
            "weights": [],
            "biases": []
        },
        {
            "weights": [
                [
                    -0.38167810440063477,
                    0.0961826741695404,
                    2.4376466274261475,
                    -0.14834579825401306,
                    0.7688286304473877,
                    0.062088191509246826,
                    -2.7242510318756104,
                    -0.17688032984733582
                ],
                [
                    -2.11604905128479,
                    0.09153591096401215,
                    -3.2965145111083984,
                    0.04895273223519325,
                    2.909423828125,
                    -0.1709252893924713,
                    1.6299065351486206,
                    -0.10362277925014496
                ],
                [
                    2.1978049278259277,
                    -0.1511136293411255,
                    -2.3657917976379395,
                    -0.1772211790084839,
                    -3.1314594745635986,
                    0.11094921827316284,
                    2.762089967727661,
                    -0.03623379021883011
                ],
                [
                    2.8044254779815674,
                    0.166113018989563,
                    -0.7885528206825256,
                    -0.1829584836959839,
                    -2.5203099250793457,
                    -0.14589278399944305,
                    -1.7710484266281128,
                    0.15669651329517365
                ]
            ],
            "biases": [
                0.6743040680885315,
                0.2564353346824646,
                0.06104178726673126,
                -0.6803848743438721
            ]
        },
        {
            "weights": [
                [
                    -1.1495184898376465,
                    -2.506685733795166,
                    2.5336837768554688,
                    3.657092809677124
                ],
                [
                    2.6740779876708984,
                    -4.644704818725586,
                    -2.9866676330566406,
                    -0.8126140832901001
                ],
                [
                    -0.26917874813079834,
                    3.165105104446411,
                    -4.640206813812256,
                    -2.9359636306762695
                ],
                [
                    -4.551205635070801,
                    1.0259363651275635,
                    3.022451877593994,
                    -1.8948413133621216
                ]
            ],
            "biases": [
                -2.8487226963043213,
                -0.3132880926132202,
                -0.9877769351005554,
                -1.1659375429153442
            ]
        }
    ],
    "inputLookup": null,
    "inputLookupLength": 0,
    "outputLookup": null,
    "outputLookupLength": 0,
    "options": {
        "inputSize": 0,
        "outputSize": 0,
        "binaryThresh": 0.5
    },
    "trainOpts": {
        "activation": "sigmoid",
        "iterations": 20000,
        "errorThresh": 0.005,
        "log": false,
        "logPeriod": 10,
        "leakyReluAlpha": 0.01,
        "learningRate": 0.3,
        "momentum": 0.1,
        "callbackPeriod": 10,
        "timeout": "Infinity",
        "beta1": 0.9,
        "beta2": 0.999,
        "epsilon": 1e-8
    }
}